#pragma once
#include <cstdarg>
namespace Eloquent {
    namespace ML {
        namespace Port {
            class Classifier {
                public:
                    /**
                    * Predict class for features vector
                    */
                    int predict(float *x) {
                        uint8_t votes[5] = { 0 };
                        // tree #1
                        if (x[17] <= 1.2450000047683716) {
                            if (x[13] <= 0.0784858912229538) {
                                if (x[37] <= 33.608564376831055) {
                                    if (x[37] <= 17.620076179504395) {
                                        votes[0] += 1;
                                    }

                                    else {
                                        if (x[5] <= 0.04046921618282795) {
                                            votes[0] += 1;
                                        }

                                        else {
                                            votes[1] += 1;
                                        }
                                    }
                                }

                                else {
                                    votes[1] += 1;
                                }
                            }

                            else {
                                if (x[35] <= 86.97500228881836) {
                                    if (x[4] <= -0.8456451594829559) {
                                        votes[0] += 1;
                                    }

                                    else {
                                        if (x[19] <= 0.6700000166893005) {
                                            if (x[45] <= 20.737417697906494) {
                                                votes[3] += 1;
                                            }

                                            else {
                                                votes[2] += 1;
                                            }
                                        }

                                        else {
                                            if (x[22] <= 12.5) {
                                                if (x[26] <= 0.14999999664723873) {
                                                    votes[3] += 1;
                                                }

                                                else {
                                                    votes[2] += 1;
                                                }
                                            }

                                            else {
                                                votes[2] += 1;
                                            }
                                        }
                                    }
                                }

                                else {
                                    if (x[27] <= 30.184999465942383) {
                                        if (x[41] <= 66.34499931335449) {
                                            votes[1] += 1;
                                        }

                                        else {
                                            votes[3] += 1;
                                        }
                                    }

                                    else {
                                        if (x[14] <= 11.0) {
                                            if (x[38] <= 16.0) {
                                                votes[1] += 1;
                                            }

                                            else {
                                                votes[2] += 1;
                                            }
                                        }

                                        else {
                                            if (x[43] <= 85.7249984741211) {
                                                if (x[21] <= 0.17986682057380676) {
                                                    votes[0] += 1;
                                                }

                                                else {
                                                    votes[1] += 1;
                                                }
                                            }

                                            else {
                                                if (x[41] <= 414.69998931884766) {
                                                    if (x[0] <= -1.6699999570846558) {
                                                        votes[4] += 1;
                                                    }

                                                    else {
                                                        if (x[24] <= -84.71500015258789) {
                                                            votes[1] += 1;
                                                        }

                                                        else {
                                                            votes[3] += 1;
                                                        }
                                                    }
                                                }

                                                else {
                                                    votes[4] += 1;
                                                }
                                            }
                                        }
                                    }
                                }
                            }
                        }

                        else {
                            if (x[13] <= 1.508600652217865) {
                                if (x[4] <= -0.3446774184703827) {
                                    if (x[9] <= 1.0449999868869781) {
                                        if (x[45] <= 90.58251571655273) {
                                            votes[1] += 1;
                                        }

                                        else {
                                            votes[3] += 1;
                                        }
                                    }

                                    else {
                                        if (x[31] <= 19.5) {
                                            if (x[19] <= 2.3050000071525574) {
                                                votes[3] += 1;
                                            }

                                            else {
                                                votes[1] += 1;
                                            }
                                        }

                                        else {
                                            if (x[46] <= 15.0) {
                                                votes[2] += 1;
                                            }

                                            else {
                                                votes[3] += 1;
                                            }
                                        }
                                    }
                                }

                                else {
                                    if (x[36] <= -104.87161254882812) {
                                        if (x[11] <= 1.1750000268220901) {
                                            votes[1] += 1;
                                        }

                                        else {
                                            votes[3] += 1;
                                        }
                                    }

                                    else {
                                        if (x[8] <= -1.8149999976158142) {
                                            votes[2] += 1;
                                        }

                                        else {
                                            if (x[41] <= 22.03499984741211) {
                                                if (x[10] <= 0.054999999701976776) {
                                                    votes[1] += 1;
                                                }

                                                else {
                                                    votes[3] += 1;
                                                }
                                            }

                                            else {
                                                if (x[43] <= 54.900001525878906) {
                                                    votes[1] += 1;
                                                }

                                                else {
                                                    votes[3] += 1;
                                                }
                                            }
                                        }
                                    }
                                }
                            }

                            else {
                                votes[4] += 1;
                            }
                        }

                        // tree #2
                        if (x[41] <= 300.3800048828125) {
                            if (x[1] <= -0.6949999928474426) {
                                if (x[33] <= 89.84500122070312) {
                                    if (x[5] <= 0.06564783677458763) {
                                        votes[0] += 1;
                                    }

                                    else {
                                        if (x[28] <= -11.937097549438477) {
                                            votes[0] += 1;
                                        }

                                        else {
                                            votes[2] += 1;
                                        }
                                    }
                                }

                                else {
                                    votes[1] += 1;
                                }
                            }

                            else {
                                if (x[21] <= 0.20105551928281784) {
                                    if (x[37] <= 33.364505767822266) {
                                        if (x[19] <= 0.8700000047683716) {
                                            if (x[45] <= 8.057750701904297) {
                                                votes[0] += 1;
                                            }

                                            else {
                                                if (x[43] <= 33.875000953674316) {
                                                    votes[0] += 1;
                                                }

                                                else {
                                                    if (x[0] <= -0.9699999988079071) {
                                                        votes[0] += 1;
                                                    }

                                                    else {
                                                        if (x[35] <= 74.54999923706055) {
                                                            votes[2] += 1;
                                                        }

                                                        else {
                                                            votes[3] += 1;
                                                        }
                                                    }
                                                }
                                            }
                                        }

                                        else {
                                            if (x[43] <= 29.875) {
                                                votes[1] += 1;
                                            }

                                            else {
                                                votes[2] += 1;
                                            }
                                        }
                                    }

                                    else {
                                        if (x[11] <= 0.38499999791383743) {
                                            votes[1] += 1;
                                        }

                                        else {
                                            votes[3] += 1;
                                        }
                                    }
                                }

                                else {
                                    if (x[27] <= 32.40999984741211) {
                                        if (x[41] <= 40.7400016784668) {
                                            votes[1] += 1;
                                        }

                                        else {
                                            if (x[32] <= -163.08499908447266) {
                                                votes[1] += 1;
                                            }

                                            else {
                                                votes[3] += 1;
                                            }
                                        }
                                    }

                                    else {
                                        if (x[11] <= 0.6099999845027924) {
                                            if (x[12] <= -0.19500000029802322) {
                                                votes[3] += 1;
                                            }

                                            else {
                                                votes[1] += 1;
                                            }
                                        }

                                        else {
                                            if (x[8] <= -1.6199999451637268) {
                                                votes[2] += 1;
                                            }

                                            else {
                                                if (x[1] <= -0.375) {
                                                    if (x[12] <= 0.12209676206111908) {
                                                        votes[4] += 1;
                                                    }

                                                    else {
                                                        votes[2] += 1;
                                                    }
                                                }

                                                else {
                                                    if (x[35] <= 241.0250015258789) {
                                                        if (x[43] <= 150.48500061035156) {
                                                            if (x[29] <= 20.928712844848633) {
                                                                votes[3] += 1;
                                                            }

                                                            else {
                                                                if (x[9] <= 1.9399999380111694) {
                                                                    votes[2] += 1;
                                                                }

                                                                else {
                                                                    votes[3] += 1;
                                                                }
                                                            }
                                                        }

                                                        else {
                                                            votes[3] += 1;
                                                        }
                                                    }

                                                    else {
                                                        if (x[44] <= -91.39403533935547) {
                                                            votes[3] += 1;
                                                        }

                                                        else {
                                                            votes[1] += 1;
                                                        }
                                                    }
                                                }
                                            }
                                        }
                                    }
                                }
                            }
                        }

                        else {
                            if (x[3] <= 1.2600000500679016) {
                                votes[1] += 1;
                            }

                            else {
                                votes[4] += 1;
                            }
                        }

                        // tree #3
                        if (x[45] <= 198.43502807617188) {
                            if (x[35] <= 79.9900016784668) {
                                if (x[19] <= 0.6850000023841858) {
                                    if (x[31] <= 22.5) {
                                        if (x[45] <= 19.813018798828125) {
                                            votes[0] += 1;
                                        }

                                        else {
                                            votes[2] += 1;
                                        }
                                    }

                                    else {
                                        votes[3] += 1;
                                    }
                                }

                                else {
                                    if (x[11] <= 0.47999998927116394) {
                                        if (x[21] <= 0.16277001053094864) {
                                            votes[0] += 1;
                                        }

                                        else {
                                            if (x[28] <= 3.520322561264038) {
                                                votes[1] += 1;
                                            }

                                            else {
                                                votes[3] += 1;
                                            }
                                        }
                                    }

                                    else {
                                        votes[2] += 1;
                                    }
                                }
                            }

                            else {
                                if (x[12] <= 0.1506451591849327) {
                                    if (x[45] <= 27.368507385253906) {
                                        if (x[13] <= 0.23221100866794586) {
                                            votes[1] += 1;
                                        }

                                        else {
                                            if (x[4] <= -0.6269354820251465) {
                                                votes[0] += 1;
                                            }

                                            else {
                                                votes[1] += 1;
                                            }
                                        }
                                    }

                                    else {
                                        if (x[33] <= 212.1300048828125) {
                                            if (x[32] <= -181.7300033569336) {
                                                if (x[10] <= 0.004999999888241291) {
                                                    votes[1] += 1;
                                                }

                                                else {
                                                    votes[3] += 1;
                                                }
                                            }

                                            else {
                                                if (x[0] <= -0.625) {
                                                    if (x[38] <= 17.0) {
                                                        if (x[6] <= 18.5) {
                                                            votes[0] += 1;
                                                        }

                                                        else {
                                                            votes[4] += 1;
                                                        }
                                                    }

                                                    else {
                                                        votes[2] += 1;
                                                    }
                                                }

                                                else {
                                                    if (x[35] <= 86.24499893188477) {
                                                        votes[2] += 1;
                                                    }

                                                    else {
                                                        if (x[18] <= 0.8350000083446503) {
                                                            votes[3] += 1;
                                                        }

                                                        else {
                                                            if (x[38] <= 13.5) {
                                                                votes[1] += 1;
                                                            }

                                                            else {
                                                                votes[3] += 1;
                                                            }
                                                        }
                                                    }
                                                }
                                            }
                                        }

                                        else {
                                            votes[1] += 1;
                                        }
                                    }
                                }

                                else {
                                    if (x[4] <= -0.49854838848114014) {
                                        votes[1] += 1;
                                    }

                                    else {
                                        votes[3] += 1;
                                    }
                                }
                            }
                        }

                        else {
                            votes[4] += 1;
                        }

                        // tree #4
                        if (x[16] <= 0.2750000059604645) {
                            if (x[5] <= 0.3780798017978668) {
                                if (x[21] <= 0.09141141176223755) {
                                    if (x[0] <= -0.6399999856948853) {
                                        votes[0] += 1;
                                    }

                                    else {
                                        votes[3] += 1;
                                    }
                                }

                                else {
                                    if (x[10] <= 0.004999999888241291) {
                                        if (x[45] <= 42.710330963134766) {
                                            if (x[28] <= -32.23854923248291) {
                                                votes[0] += 1;
                                            }

                                            else {
                                                if (x[23] <= 20.5) {
                                                    if (x[11] <= 1.080000028014183) {
                                                        votes[1] += 1;
                                                    }

                                                    else {
                                                        votes[3] += 1;
                                                    }
                                                }

                                                else {
                                                    if (x[28] <= -15.5972580909729) {
                                                        votes[0] += 1;
                                                    }

                                                    else {
                                                        votes[1] += 1;
                                                    }
                                                }
                                            }
                                        }

                                        else {
                                            votes[3] += 1;
                                        }
                                    }

                                    else {
                                        if (x[0] <= -0.6150000095367432) {
                                            if (x[8] <= -0.11499999836087227) {
                                                if (x[39] <= 12.5) {
                                                    votes[3] += 1;
                                                }

                                                else {
                                                    votes[1] += 1;
                                                }
                                            }

                                            else {
                                                if (x[21] <= 0.4795134589076042) {
                                                    votes[0] += 1;
                                                }

                                                else {
                                                    votes[3] += 1;
                                                }
                                            }
                                        }

                                        else {
                                            if (x[27] <= 19.93000030517578) {
                                                if (x[37] <= 27.738950729370117) {
                                                    votes[3] += 1;
                                                }

                                                else {
                                                    votes[1] += 1;
                                                }
                                            }

                                            else {
                                                if (x[19] <= 3.0799999237060547) {
                                                    if (x[34] <= 43.760000228881836) {
                                                        votes[3] += 1;
                                                    }

                                                    else {
                                                        if (x[43] <= 79.71500015258789) {
                                                            votes[1] += 1;
                                                        }

                                                        else {
                                                            votes[3] += 1;
                                                        }
                                                    }
                                                }

                                                else {
                                                    votes[1] += 1;
                                                }
                                            }
                                        }
                                    }
                                }
                            }

                            else {
                                if (x[22] <= 19.0) {
                                    if (x[36] <= -99.05290412902832) {
                                        votes[1] += 1;
                                    }

                                    else {
                                        votes[4] += 1;
                                    }
                                }

                                else {
                                    votes[1] += 1;
                                }
                            }
                        }

                        else {
                            if (x[11] <= 0.47999998927116394) {
                                if (x[13] <= 0.05051830969750881) {
                                    if (x[19] <= 1.050000011920929) {
                                        votes[0] += 1;
                                    }

                                    else {
                                        votes[1] += 1;
                                    }
                                }

                                else {
                                    if (x[2] <= 0.7350000143051147) {
                                        if (x[31] <= 10.0) {
                                            votes[2] += 1;
                                        }

                                        else {
                                            if (x[38] <= 22.5) {
                                                votes[1] += 1;
                                            }

                                            else {
                                                votes[3] += 1;
                                            }
                                        }
                                    }

                                    else {
                                        if (x[13] <= 0.09518289938569069) {
                                            votes[0] += 1;
                                        }

                                        else {
                                            votes[1] += 1;
                                        }
                                    }
                                }
                            }

                            else {
                                if (x[41] <= 170.37999725341797) {
                                    if (x[20] <= 1.1346774101257324) {
                                        if (x[8] <= 0.35999999940395355) {
                                            if (x[35] <= 93.53499984741211) {
                                                if (x[19] <= 0.675000011920929) {
                                                    if (x[32] <= 3.1399993896484375) {
                                                        votes[2] += 1;
                                                    }

                                                    else {
                                                        votes[0] += 1;
                                                    }
                                                }

                                                else {
                                                    votes[2] += 1;
                                                }
                                            }

                                            else {
                                                votes[3] += 1;
                                            }
                                        }

                                        else {
                                            if (x[44] <= -8.371935367584229) {
                                                votes[2] += 1;
                                            }

                                            else {
                                                votes[3] += 1;
                                            }
                                        }
                                    }

                                    else {
                                        votes[3] += 1;
                                    }
                                }

                                else {
                                    votes[3] += 1;
                                }
                            }
                        }

                        // tree #5
                        if (x[35] <= 79.9900016784668) {
                            if (x[2] <= 0.5250000059604645) {
                                if (x[41] <= 423.8899917602539) {
                                    if (x[40] <= 35.00500011444092) {
                                        votes[2] += 1;
                                    }

                                    else {
                                        if (x[36] <= 27.32693576812744) {
                                            votes[2] += 1;
                                        }

                                        else {
                                            votes[3] += 1;
                                        }
                                    }
                                }

                                else {
                                    votes[4] += 1;
                                }
                            }

                            else {
                                if (x[11] <= 0.5250000059604645) {
                                    votes[0] += 1;
                                }

                                else {
                                    if (x[47] <= 8.0) {
                                        votes[1] += 1;
                                    }

                                    else {
                                        if (x[4] <= -0.6240322589874268) {
                                            votes[2] += 1;
                                        }

                                        else {
                                            votes[0] += 1;
                                        }
                                    }
                                }
                            }
                        }

                        else {
                            if (x[1] <= 0.9149999916553497) {
                                if (x[3] <= 0.4650000035762787) {
                                    if (x[42] <= 0.6100000143051147) {
                                        if (x[41] <= 52.21500015258789) {
                                            if (x[17] <= 2.0999999046325684) {
                                                votes[1] += 1;
                                            }

                                            else {
                                                if (x[4] <= -0.28564515709877014) {
                                                    votes[3] += 1;
                                                }

                                                else {
                                                    votes[1] += 1;
                                                }
                                            }
                                        }

                                        else {
                                            if (x[22] <= 12.0) {
                                                if (x[14] <= 16.0) {
                                                    votes[3] += 1;
                                                }

                                                else {
                                                    votes[1] += 1;
                                                }
                                            }

                                            else {
                                                votes[3] += 1;
                                            }
                                        }
                                    }

                                    else {
                                        if (x[23] <= 13.5) {
                                            if (x[42] <= 0.945000022649765) {
                                                votes[1] += 1;
                                            }

                                            else {
                                                votes[3] += 1;
                                            }
                                        }

                                        else {
                                            if (x[10] <= 0.004999999888241291) {
                                                if (x[32] <= -177.7949981689453) {
                                                    votes[1] += 1;
                                                }

                                                else {
                                                    votes[3] += 1;
                                                }
                                            }

                                            else {
                                                if (x[25] <= -11.684999942779541) {
                                                    if (x[26] <= 12.264999866485596) {
                                                        votes[2] += 1;
                                                    }

                                                    else {
                                                        votes[3] += 1;
                                                    }
                                                }

                                                else {
                                                    if (x[34] <= 0.15000000223517418) {
                                                        votes[1] += 1;
                                                    }

                                                    else {
                                                        votes[3] += 1;
                                                    }
                                                }
                                            }
                                        }
                                    }
                                }

                                else {
                                    if (x[10] <= 0.014999999664723873) {
                                        if (x[11] <= 0.6099999845027924) {
                                            if (x[43] <= 72.20499801635742) {
                                                votes[1] += 1;
                                            }

                                            else {
                                                if (x[25] <= 25.54499912261963) {
                                                    votes[1] += 1;
                                                }

                                                else {
                                                    votes[0] += 1;
                                                }
                                            }
                                        }

                                        else {
                                            if (x[35] <= 192.04500579833984) {
                                                if (x[40] <= -116.67000198364258) {
                                                    votes[3] += 1;
                                                }

                                                else {
                                                    votes[2] += 1;
                                                }
                                            }

                                            else {
                                                if (x[27] <= 123.9000015258789) {
                                                    votes[1] += 1;
                                                }

                                                else {
                                                    votes[3] += 1;
                                                }
                                            }
                                        }
                                    }

                                    else {
                                        if (x[4] <= -0.43451613187789917) {
                                            if (x[31] <= 14.5) {
                                                votes[2] += 1;
                                            }

                                            else {
                                                if (x[16] <= -0.635000005364418) {
                                                    votes[4] += 1;
                                                }

                                                else {
                                                    votes[1] += 1;
                                                }
                                            }
                                        }

                                        else {
                                            if (x[45] <= 15.665996551513672) {
                                                votes[1] += 1;
                                            }

                                            else {
                                                votes[3] += 1;
                                            }
                                        }
                                    }
                                }
                            }

                            else {
                                votes[4] += 1;
                            }
                        }

                        // tree #6
                        if (x[43] <= 65.34000015258789) {
                            if (x[37] <= 17.08948516845703) {
                                if (x[17] <= 1.0600000023841858) {
                                    if (x[12] <= 0.4283870905637741) {
                                        votes[0] += 1;
                                    }

                                    else {
                                        votes[2] += 1;
                                    }
                                }

                                else {
                                    votes[1] += 1;
                                }
                            }

                            else {
                                if (x[35] <= 75.38000106811523) {
                                    if (x[19] <= 1.1850000023841858) {
                                        votes[0] += 1;
                                    }

                                    else {
                                        votes[1] += 1;
                                    }
                                }

                                else {
                                    if (x[41] <= 59.53999900817871) {
                                        votes[1] += 1;
                                    }

                                    else {
                                        votes[0] += 1;
                                    }
                                }
                            }
                        }

                        else {
                            if (x[37] <= 22.21809482574463) {
                                if (x[36] <= 52.51322364807129) {
                                    if (x[8] <= 0.4099999964237213) {
                                        votes[2] += 1;
                                    }

                                    else {
                                        votes[3] += 1;
                                    }
                                }

                                else {
                                    votes[3] += 1;
                                }
                            }

                            else {
                                if (x[8] <= -1.9649999737739563) {
                                    if (x[21] <= 0.22098679840564728) {
                                        votes[2] += 1;
                                    }

                                    else {
                                        votes[4] += 1;
                                    }
                                }

                                else {
                                    if (x[17] <= 2.834999918937683) {
                                        if (x[12] <= -0.8308064639568329) {
                                            if (x[21] <= 0.4367503151297569) {
                                                votes[2] += 1;
                                            }

                                            else {
                                                votes[3] += 1;
                                            }
                                        }

                                        else {
                                            if (x[4] <= -0.38258063793182373) {
                                                if (x[47] <= 14.5) {
                                                    if (x[43] <= 161.22000122070312) {
                                                        if (x[2] <= 0.6599999964237213) {
                                                            votes[1] += 1;
                                                        }

                                                        else {
                                                            votes[0] += 1;
                                                        }
                                                    }

                                                    else {
                                                        votes[3] += 1;
                                                    }
                                                }

                                                else {
                                                    if (x[37] <= 51.46771812438965) {
                                                        votes[2] += 1;
                                                    }

                                                    else {
                                                        if (x[23] <= 12.5) {
                                                            votes[3] += 1;
                                                        }

                                                        else {
                                                            votes[4] += 1;
                                                        }
                                                    }
                                                }
                                            }

                                            else {
                                                if (x[11] <= 0.36499999463558197) {
                                                    votes[1] += 1;
                                                }

                                                else {
                                                    if (x[33] <= 259.0299987792969) {
                                                        if (x[18] <= 0.6599999964237213) {
                                                            votes[3] += 1;
                                                        }

                                                        else {
                                                            if (x[13] <= 0.23185797780752182) {
                                                                votes[2] += 1;
                                                            }

                                                            else {
                                                                votes[3] += 1;
                                                            }
                                                        }
                                                    }

                                                    else {
                                                        votes[1] += 1;
                                                    }
                                                }
                                            }
                                        }
                                    }

                                    else {
                                        if (x[13] <= 0.3899703919887543) {
                                            votes[1] += 1;
                                        }

                                        else {
                                            votes[3] += 1;
                                        }
                                    }
                                }
                            }
                        }

                        // tree #7
                        if (x[35] <= 79.9900016784668) {
                            if (x[11] <= 0.47999998927116394) {
                                if (x[19] <= 1.0899999737739563) {
                                    votes[0] += 1;
                                }

                                else {
                                    if (x[10] <= 0.004999999888241291) {
                                        votes[3] += 1;
                                    }

                                    else {
                                        votes[1] += 1;
                                    }
                                }
                            }

                            else {
                                if (x[13] <= 0.08541416749358177) {
                                    votes[0] += 1;
                                }

                                else {
                                    if (x[14] <= 10.5) {
                                        votes[1] += 1;
                                    }

                                    else {
                                        if (x[16] <= 0.1849999949336052) {
                                            if (x[20] <= 0.42951613664627075) {
                                                votes[3] += 1;
                                            }

                                            else {
                                                votes[4] += 1;
                                            }
                                        }

                                        else {
                                            votes[2] += 1;
                                        }
                                    }
                                }
                            }
                        }

                        else {
                            if (x[41] <= 315.94500732421875) {
                                if (x[10] <= 0.014999999664723873) {
                                    if (x[45] <= 33.29047393798828) {
                                        if (x[13] <= 0.254487507045269) {
                                            votes[1] += 1;
                                        }

                                        else {
                                            if (x[4] <= -0.7408064603805542) {
                                                votes[0] += 1;
                                            }

                                            else {
                                                if (x[7] <= 13.5) {
                                                    if (x[36] <= -99.56209754943848) {
                                                        votes[1] += 1;
                                                    }

                                                    else {
                                                        votes[2] += 1;
                                                    }
                                                }

                                                else {
                                                    votes[3] += 1;
                                                }
                                            }
                                        }
                                    }

                                    else {
                                        if (x[15] <= 10.0) {
                                            if (x[1] <= -0.07999999821186066) {
                                                votes[3] += 1;
                                            }

                                            else {
                                                votes[1] += 1;
                                            }
                                        }

                                        else {
                                            if (x[42] <= 18.34500026702881) {
                                                if (x[35] <= 183.625) {
                                                    votes[3] += 1;
                                                }

                                                else {
                                                    votes[1] += 1;
                                                }
                                            }

                                            else {
                                                votes[1] += 1;
                                            }
                                        }
                                    }
                                }

                                else {
                                    if (x[43] <= 73.39500045776367) {
                                        votes[1] += 1;
                                    }

                                    else {
                                        if (x[33] <= 246.63999938964844) {
                                            if (x[12] <= -0.9498386979103088) {
                                                votes[2] += 1;
                                            }

                                            else {
                                                if (x[1] <= -0.41999998688697815) {
                                                    votes[4] += 1;
                                                }

                                                else {
                                                    if (x[45] <= 26.27776336669922) {
                                                        if (x[41] <= 34.730000495910645) {
                                                            votes[2] += 1;
                                                        }

                                                        else {
                                                            votes[3] += 1;
                                                        }
                                                    }

                                                    else {
                                                        votes[3] += 1;
                                                    }
                                                }
                                            }
                                        }

                                        else {
                                            votes[1] += 1;
                                        }
                                    }
                                }
                            }

                            else {
                                votes[4] += 1;
                            }
                        }

                        // tree #8
                        if (x[11] <= 0.48999999463558197) {
                            if (x[0] <= -0.7150000035762787) {
                                if (x[21] <= 0.1367739886045456) {
                                    if (x[18] <= 0.7949999868869781) {
                                        votes[0] += 1;
                                    }

                                    else {
                                        votes[1] += 1;
                                    }
                                }

                                else {
                                    if (x[45] <= 25.203572273254395) {
                                        votes[1] += 1;
                                    }

                                    else {
                                        votes[0] += 1;
                                    }
                                }
                            }

                            else {
                                if (x[41] <= 108.00000381469727) {
                                    if (x[2] <= 0.510000005364418) {
                                        if (x[44] <= -39.30758094787598) {
                                            votes[3] += 1;
                                        }

                                        else {
                                            votes[1] += 1;
                                        }
                                    }

                                    else {
                                        votes[0] += 1;
                                    }
                                }

                                else {
                                    votes[3] += 1;
                                }
                            }
                        }

                        else {
                            if (x[0] <= -1.0549999475479126) {
                                if (x[42] <= 1.25) {
                                    votes[1] += 1;
                                }

                                else {
                                    if (x[22] <= 19.0) {
                                        votes[4] += 1;
                                    }

                                    else {
                                        votes[1] += 1;
                                    }
                                }
                            }

                            else {
                                if (x[16] <= 0.2800000011920929) {
                                    if (x[3] <= 0.6650000214576721) {
                                        if (x[16] <= -0.5450000166893005) {
                                            if (x[15] <= 13.5) {
                                                votes[1] += 1;
                                            }

                                            else {
                                                votes[3] += 1;
                                            }
                                        }

                                        else {
                                            votes[3] += 1;
                                        }
                                    }

                                    else {
                                        if (x[24] <= -60.18000030517578) {
                                            if (x[6] <= 11.5) {
                                                votes[4] += 1;
                                            }

                                            else {
                                                votes[1] += 1;
                                            }
                                        }

                                        else {
                                            votes[3] += 1;
                                        }
                                    }
                                }

                                else {
                                    if (x[40] <= -169.83499908447266) {
                                        if (x[2] <= 0.36499999463558197) {
                                            votes[3] += 1;
                                        }

                                        else {
                                            votes[2] += 1;
                                        }
                                    }

                                    else {
                                        if (x[34] <= 13.275000095367432) {
                                            if (x[36] <= 35.23806381225586) {
                                                if (x[9] <= 1.9900000095367432) {
                                                    if (x[40] <= -162.29000091552734) {
                                                        if (x[36] <= -14.536612510681152) {
                                                            votes[3] += 1;
                                                        }

                                                        else {
                                                            votes[2] += 1;
                                                        }
                                                    }

                                                    else {
                                                        if (x[41] <= 177.4000015258789) {
                                                            votes[2] += 1;
                                                        }

                                                        else {
                                                            votes[3] += 1;
                                                        }
                                                    }
                                                }

                                                else {
                                                    votes[3] += 1;
                                                }
                                            }

                                            else {
                                                if (x[19] <= 1.23499995470047) {
                                                    votes[2] += 1;
                                                }

                                                else {
                                                    votes[3] += 1;
                                                }
                                            }
                                        }

                                        else {
                                            if (x[11] <= 0.6049999892711639) {
                                                votes[0] += 1;
                                            }

                                            else {
                                                if (x[21] <= 0.21596089005470276) {
                                                    votes[2] += 1;
                                                }

                                                else {
                                                    votes[3] += 1;
                                                }
                                            }
                                        }
                                    }
                                }
                            }
                        }

                        // tree #9
                        if (x[43] <= 353.5449981689453) {
                            if (x[35] <= 77.57500076293945) {
                                if (x[18] <= 0.375) {
                                    if (x[9] <= 0.5949999988079071) {
                                        if (x[11] <= 0.7799999713897705) {
                                            votes[0] += 1;
                                        }

                                        else {
                                            votes[2] += 1;
                                        }
                                    }

                                    else {
                                        votes[2] += 1;
                                    }
                                }

                                else {
                                    if (x[27] <= 9.03000020980835) {
                                        votes[0] += 1;
                                    }

                                    else {
                                        if (x[2] <= 0.5999999940395355) {
                                            if (x[5] <= 0.01839164923876524) {
                                                votes[0] += 1;
                                            }

                                            else {
                                                if (x[21] <= 0.22246819734573364) {
                                                    votes[2] += 1;
                                                }

                                                else {
                                                    if (x[13] <= 0.449249766767025) {
                                                        if (x[23] <= 18.0) {
                                                            votes[3] += 1;
                                                        }

                                                        else {
                                                            votes[1] += 1;
                                                        }
                                                    }

                                                    else {
                                                        votes[2] += 1;
                                                    }
                                                }
                                            }
                                        }

                                        else {
                                            if (x[45] <= 6.27474308013916) {
                                                votes[0] += 1;
                                            }

                                            else {
                                                if (x[3] <= 0.7549999952316284) {
                                                    votes[0] += 1;
                                                }

                                                else {
                                                    votes[2] += 1;
                                                }
                                            }
                                        }
                                    }
                                }
                            }

                            else {
                                if (x[43] <= 93.71999740600586) {
                                    if (x[9] <= 0.5600000023841858) {
                                        if (x[46] <= 22.5) {
                                            if (x[42] <= 7.355000019073486) {
                                                if (x[45] <= 27.368507385253906) {
                                                    votes[1] += 1;
                                                }

                                                else {
                                                    if (x[21] <= 0.2705148234963417) {
                                                        if (x[30] <= 14.0) {
                                                            votes[1] += 1;
                                                        }

                                                        else {
                                                            votes[0] += 1;
                                                        }
                                                    }

                                                    else {
                                                        votes[1] += 1;
                                                    }
                                                }
                                            }

                                            else {
                                                votes[0] += 1;
                                            }
                                        }

                                        else {
                                            votes[0] += 1;
                                        }
                                    }

                                    else {
                                        if (x[8] <= -0.034999996423721313) {
                                            votes[0] += 1;
                                        }

                                        else {
                                            votes[3] += 1;
                                        }
                                    }
                                }

                                else {
                                    if (x[21] <= 1.227903127670288) {
                                        if (x[2] <= 0.3049999922513962) {
                                            if (x[11] <= 0.3499999940395355) {
                                                votes[1] += 1;
                                            }

                                            else {
                                                if (x[21] <= 0.1972660943865776) {
                                                    if (x[26] <= 0.4000000059604645) {
                                                        votes[2] += 1;
                                                    }

                                                    else {
                                                        if (x[13] <= 0.3050065040588379) {
                                                            if (x[0] <= -0.48499999940395355) {
                                                                votes[2] += 1;
                                                            }

                                                            else {
                                                                votes[3] += 1;
                                                            }
                                                        }

                                                        else {
                                                            votes[3] += 1;
                                                        }
                                                    }
                                                }

                                                else {
                                                    votes[3] += 1;
                                                }
                                            }
                                        }

                                        else {
                                            if (x[41] <= 115.54000091552734) {
                                                votes[3] += 1;
                                            }

                                            else {
                                                if (x[23] <= 14.0) {
                                                    votes[4] += 1;
                                                }

                                                else {
                                                    votes[2] += 1;
                                                }
                                            }
                                        }
                                    }

                                    else {
                                        if (x[18] <= 0.06999999936670065) {
                                            votes[3] += 1;
                                        }

                                        else {
                                            votes[1] += 1;
                                        }
                                    }
                                }
                            }
                        }

                        else {
                            votes[4] += 1;
                        }

                        // tree #10
                        if (x[18] <= 0.2750000059604645) {
                            if (x[11] <= 3.350000023841858) {
                                if (x[43] <= 88.6500015258789) {
                                    if (x[5] <= 0.037292355671525) {
                                        votes[0] += 1;
                                    }

                                    else {
                                        if (x[29] <= 26.205687522888184) {
                                            if (x[28] <= -15.284516334533691) {
                                                if (x[11] <= 0.32999999821186066) {
                                                    votes[1] += 1;
                                                }

                                                else {
                                                    votes[0] += 1;
                                                }
                                            }

                                            else {
                                                votes[1] += 1;
                                            }
                                        }

                                        else {
                                            votes[0] += 1;
                                        }
                                    }
                                }

                                else {
                                    if (x[41] <= 352.56500244140625) {
                                        if (x[11] <= 0.39499999582767487) {
                                            votes[1] += 1;
                                        }

                                        else {
                                            if (x[35] <= 287.47999572753906) {
                                                if (x[1] <= -0.42499999701976776) {
                                                    votes[4] += 1;
                                                }

                                                else {
                                                    if (x[21] <= 1.217855989933014) {
                                                        votes[3] += 1;
                                                    }

                                                    else {
                                                        if (x[36] <= 0.7159690856933594) {
                                                            votes[3] += 1;
                                                        }

                                                        else {
                                                            votes[1] += 1;
                                                        }
                                                    }
                                                }
                                            }

                                            else {
                                                votes[1] += 1;
                                            }
                                        }
                                    }

                                    else {
                                        votes[1] += 1;
                                    }
                                }
                            }

                            else {
                                votes[4] += 1;
                            }
                        }

                        else {
                            if (x[1] <= -0.7350000143051147) {
                                if (x[0] <= -1.2649999856948853) {
                                    votes[1] += 1;
                                }

                                else {
                                    votes[0] += 1;
                                }
                            }

                            else {
                                if (x[33] <= 83.25500106811523) {
                                    if (x[32] <= -89.69000244140625) {
                                        if (x[40] <= -85.35500240325928) {
                                            votes[3] += 1;
                                        }

                                        else {
                                            votes[1] += 1;
                                        }
                                    }

                                    else {
                                        if (x[13] <= 0.08541416749358177) {
                                            votes[0] += 1;
                                        }

                                        else {
                                            if (x[4] <= -0.8048387169837952) {
                                                if (x[45] <= 45.83242702484131) {
                                                    votes[2] += 1;
                                                }

                                                else {
                                                    votes[1] += 1;
                                                }
                                            }

                                            else {
                                                if (x[44] <= -102.65532302856445) {
                                                    if (x[24] <= -24.84000062942505) {
                                                        votes[3] += 1;
                                                    }

                                                    else {
                                                        votes[2] += 1;
                                                    }
                                                }

                                                else {
                                                    votes[2] += 1;
                                                }
                                            }
                                        }
                                    }
                                }

                                else {
                                    if (x[11] <= 0.6299999952316284) {
                                        if (x[43] <= 119.93500137329102) {
                                            votes[1] += 1;
                                        }

                                        else {
                                            votes[3] += 1;
                                        }
                                    }

                                    else {
                                        votes[3] += 1;
                                    }
                                }
                            }
                        }

                        // tree #11
                        if (x[43] <= 54.22999954223633) {
                            if (x[21] <= 0.08722494915127754) {
                                votes[0] += 1;
                            }

                            else {
                                if (x[1] <= -0.9150000214576721) {
                                    votes[0] += 1;
                                }

                                else {
                                    if (x[7] <= 11.5) {
                                        if (x[0] <= -0.9899999797344208) {
                                            votes[2] += 1;
                                        }

                                        else {
                                            votes[1] += 1;
                                        }
                                    }

                                    else {
                                        if (x[35] <= 73.3650016784668) {
                                            votes[0] += 1;
                                        }

                                        else {
                                            votes[1] += 1;
                                        }
                                    }
                                }
                            }
                        }

                        else {
                            if (x[41] <= 300.3800048828125) {
                                if (x[16] <= 0.2800000011920929) {
                                    if (x[29] <= 61.354400634765625) {
                                        if (x[10] <= 0.004999999888241291) {
                                            if (x[1] <= 0.05500000063329935) {
                                                if (x[20] <= 0.9237096607685089) {
                                                    if (x[19] <= 0.9000000059604645) {
                                                        votes[0] += 1;
                                                    }

                                                    else {
                                                        votes[1] += 1;
                                                    }
                                                }

                                                else {
                                                    votes[3] += 1;
                                                }
                                            }

                                            else {
                                                votes[3] += 1;
                                            }
                                        }

                                        else {
                                            if (x[18] <= 0.2850000113248825) {
                                                if (x[9] <= 0.42499999701976776) {
                                                    if (x[20] <= 0.2130645215511322) {
                                                        votes[1] += 1;
                                                    }

                                                    else {
                                                        if (x[41] <= 86.91500091552734) {
                                                            votes[1] += 1;
                                                        }

                                                        else {
                                                            votes[3] += 1;
                                                        }
                                                    }
                                                }

                                                else {
                                                    votes[3] += 1;
                                                }
                                            }

                                            else {
                                                votes[1] += 1;
                                            }
                                        }
                                    }

                                    else {
                                        votes[1] += 1;
                                    }
                                }

                                else {
                                    if (x[44] <= -94.05451583862305) {
                                        if (x[41] <= -29.479999542236328) {
                                            votes[2] += 1;
                                        }

                                        else {
                                            if (x[43] <= 159.61000061035156) {
                                                votes[2] += 1;
                                            }

                                            else {
                                                if (x[33] <= 63.02000045776367) {
                                                    votes[2] += 1;
                                                }

                                                else {
                                                    votes[3] += 1;
                                                }
                                            }
                                        }
                                    }

                                    else {
                                        if (x[17] <= 1.2999999523162842) {
                                            if (x[35] <= 97.63000106811523) {
                                                votes[2] += 1;
                                            }

                                            else {
                                                votes[3] += 1;
                                            }
                                        }

                                        else {
                                            if (x[13] <= 0.5881309360265732) {
                                                if (x[19] <= 1.9949999451637268) {
                                                    votes[3] += 1;
                                                }

                                                else {
                                                    votes[1] += 1;
                                                }
                                            }

                                            else {
                                                if (x[32] <= -110.86999893188477) {
                                                    votes[3] += 1;
                                                }

                                                else {
                                                    votes[2] += 1;
                                                }
                                            }
                                        }
                                    }
                                }
                            }

                            else {
                                if (x[9] <= 3.0449999570846558) {
                                    if (x[35] <= 172.94499969482422) {
                                        votes[4] += 1;
                                    }

                                    else {
                                        votes[1] += 1;
                                    }
                                }

                                else {
                                    votes[4] += 1;
                                }
                            }
                        }

                        // tree #12
                        if (x[43] <= 65.34000015258789) {
                            if (x[5] <= 0.047171760350465775) {
                                if (x[4] <= -0.5590322613716125) {
                                    votes[0] += 1;
                                }

                                else {
                                    votes[1] += 1;
                                }
                            }

                            else {
                                if (x[26] <= 20.264999389648438) {
                                    if (x[10] <= 0.16499999910593033) {
                                        if (x[41] <= 58.869998931884766) {
                                            if (x[24] <= -60.08999824523926) {
                                                if (x[35] <= 119.17000389099121) {
                                                    votes[0] += 1;
                                                }

                                                else {
                                                    votes[1] += 1;
                                                }
                                            }

                                            else {
                                                votes[1] += 1;
                                            }
                                        }

                                        else {
                                            votes[0] += 1;
                                        }
                                    }

                                    else {
                                        votes[2] += 1;
                                    }
                                }

                                else {
                                    votes[0] += 1;
                                }
                            }
                        }

                        else {
                            if (x[1] <= 0.8649999797344208) {
                                if (x[21] <= 0.23070751130580902) {
                                    if (x[37] <= 30.289569854736328) {
                                        if (x[16] <= 0.15499999653548002) {
                                            votes[0] += 1;
                                        }

                                        else {
                                            if (x[9] <= 0.4599999934434891) {
                                                if (x[36] <= -9.134193420410156) {
                                                    if (x[15] <= 20.5) {
                                                        votes[2] += 1;
                                                    }

                                                    else {
                                                        votes[3] += 1;
                                                    }
                                                }

                                                else {
                                                    votes[2] += 1;
                                                }
                                            }

                                            else {
                                                votes[2] += 1;
                                            }
                                        }
                                    }

                                    else {
                                        if (x[42] <= 0.14999999664723873) {
                                            votes[0] += 1;
                                        }

                                        else {
                                            if (x[21] <= 0.2157956212759018) {
                                                if (x[37] <= 33.444955825805664) {
                                                    if (x[14] <= 16.0) {
                                                        votes[3] += 1;
                                                    }

                                                    else {
                                                        votes[2] += 1;
                                                    }
                                                }

                                                else {
                                                    votes[3] += 1;
                                                }
                                            }

                                            else {
                                                if (x[28] <= -15.860161066055298) {
                                                    votes[3] += 1;
                                                }

                                                else {
                                                    votes[2] += 1;
                                                }
                                            }
                                        }
                                    }
                                }

                                else {
                                    if (x[4] <= -0.38822580873966217) {
                                        if (x[21] <= 0.5218753069639206) {
                                            if (x[19] <= 1.5149999856948853) {
                                                if (x[14] <= 11.5) {
                                                    votes[1] += 1;
                                                }

                                                else {
                                                    votes[2] += 1;
                                                }
                                            }

                                            else {
                                                votes[3] += 1;
                                            }
                                        }

                                        else {
                                            votes[1] += 1;
                                        }
                                    }

                                    else {
                                        if (x[10] <= 0.004999999888241291) {
                                            if (x[42] <= 0.6700000166893005) {
                                                if (x[40] <= -101.3499984741211) {
                                                    votes[3] += 1;
                                                }

                                                else {
                                                    votes[1] += 1;
                                                }
                                            }

                                            else {
                                                if (x[32] <= -235.93498992919922) {
                                                    votes[1] += 1;
                                                }

                                                else {
                                                    votes[3] += 1;
                                                }
                                            }
                                        }

                                        else {
                                            if (x[37] <= 18.989587783813477) {
                                                if (x[18] <= 0.32499998807907104) {
                                                    votes[3] += 1;
                                                }

                                                else {
                                                    votes[2] += 1;
                                                }
                                            }

                                            else {
                                                if (x[33] <= 259.0299987792969) {
                                                    votes[3] += 1;
                                                }

                                                else {
                                                    votes[1] += 1;
                                                }
                                            }
                                        }
                                    }
                                }
                            }

                            else {
                                votes[4] += 1;
                            }
                        }

                        // tree #13
                        if (x[35] <= 86.54999923706055) {
                            if (x[19] <= 0.675000011920929) {
                                if (x[32] <= -64.05500030517578) {
                                    votes[3] += 1;
                                }

                                else {
                                    if (x[11] <= 0.6699999868869781) {
                                        votes[0] += 1;
                                    }

                                    else {
                                        votes[3] += 1;
                                    }
                                }
                            }

                            else {
                                if (x[13] <= 0.06910694763064384) {
                                    votes[0] += 1;
                                }

                                else {
                                    if (x[2] <= 0.6949999928474426) {
                                        if (x[47] <= 7.0) {
                                            votes[1] += 1;
                                        }

                                        else {
                                            if (x[35] <= 70.31500244140625) {
                                                votes[2] += 1;
                                            }

                                            else {
                                                if (x[25] <= 9.005000114440918) {
                                                    votes[1] += 1;
                                                }

                                                else {
                                                    votes[2] += 1;
                                                }
                                            }
                                        }
                                    }

                                    else {
                                        if (x[33] <= 35.46000099182129) {
                                            votes[2] += 1;
                                        }

                                        else {
                                            votes[0] += 1;
                                        }
                                    }
                                }
                            }
                        }

                        else {
                            if (x[43] <= 93.71999740600586) {
                                if (x[12] <= 0.45064516365528107) {
                                    votes[1] += 1;
                                }

                                else {
                                    votes[3] += 1;
                                }
                            }

                            else {
                                if (x[16] <= -0.5550000071525574) {
                                    if (x[5] <= 0.557686060667038) {
                                        if (x[4] <= 0.043225807370617986) {
                                            if (x[10] <= 0.024999999441206455) {
                                                votes[1] += 1;
                                            }

                                            else {
                                                votes[4] += 1;
                                            }
                                        }

                                        else {
                                            votes[3] += 1;
                                        }
                                    }

                                    else {
